-1.0238 0.5508 0.1125 0.5834 -0.5854 0.2547 0.7823 0.1873 0.5352 0.2621 0.4334 0.2417 0.3478 0.0644 0.3528 0.6963 -0.3858 -0.9353 -0.4084 0.2049 1.2639 0.6268 0.2696 0.9146 0.0903 0.5065 0.5644 0.2391 0.1333 -0.3999 0.8153 0.6346 0.9197 0.1644 0.2943
-0.2736 0.3147 -0.235 -0.0176 -0.3485 -0.5375 0.6186 0.908 0.1201 -0.5325 0.0757 0.7826 0.409 -0.0052 0.2718 -0.2895 -0.2583 -0.3624 -0.112 -0.2846 0.8187 0.2183 0.097 0.1287 0.2752 0.2459 0.8907 0.6959 0.7583 -0.5114 -0.1526 0.3504 0.1115 0.1472 -0.5108
-0.0639 0.3166 0.8086 0.3561 -0.0876 0.164 0.6909 0.0605 0.1749 -0.2398 -0.2766 0.1957 0.5116 1.0839 -0.9857 -0.4644 -0.7666 -0.252 -1.1605 -0.272 -0.4554 0.7582 0.8432 0.0961 -0.8851 0.2832 0.1106 0.7065 0.2405 -0.2012 1.0552 0.3595 0.4034 0.2969 0.8585
0.1297 0.3384 0.0075 0.1983 0.4547 -0.5378 0.0775 0.9393 0.4439 -0.1075 0.2395 0.3587 0.6983 0.5998 -0.4521 0.4098 0.2244 -0.3178 -0.0034 -0.2128 0.6968 0.6311 0.1386 0.1571 -0.0415 0.6375 0.6472 0.1167 0.0488 0.0527 0.8343 0.9057 0.5807 0.7235 0.3752
0.5705 0.026 -0.4902 -0.5107 0.4677 0.2856 0.8538 0.888 0.5639 0.4006 0.211 0.0893 0.2368 0.2348 0.0755 -0.1924 0.0595 0.6936 0.7614 0.3888 0.1757 0.3638 0.5909 0.6656 0.085 -0.1146 0.7949 0.1891 0.6726 -0.0747 0.2895 -0.3341 -0.5397 0.1644 0.8983
0.2932 0.4663 0.8162 0.508 0.907 0.1427 0.1725 0.5542 0.6403 -0.1696 0.2588 0.5034 0.1674 -0.0208 -0.4992 0.4423 -0.5383 -0.2837 0.1008 -0.2075 0.6184 0.3076 0.8019 0.0148 0.6647 0.1546 0.5551 0.6235 0.8869 0.0976 -0.1103 0.638 0.7107 0.252 -0.2576
0.0692 0.118 -0.044 0.846 0.0604 0.0076 0.2297 0.9664 0.2303 -0.2921 0.2197 0.8833 0.13 0.5821 0.2021 -0.0834 0.2058 -0.4037 -0.3737 0.2411 0.4408 0.4262 0.1887 0.0469 -0.2681 0.3897 0.3418 0.0547 0.6619 -0.1186 0.5248 0.448 0.577 0.8808 0.1885
-0.3722 0.4842 0.175 0.449 -0.1337 -0.5194 0.589 0.6199 0.5262 0.1087 -0.0629 0.1023 0.918 1.4062 0.3245 -0.2992 0.0419 -0.0416 -0.9716 -0.3151 0.6338 0.6088 0.6265 0.9094 -0.1951 0.1353 1.2556 0.8286 0.1525 -0.2392 0.3782 0.5892 -0.1619 0.1648 -0.0617
-0.5463 -0.0289 0.5845 0.2931 -0.72 -0.2129 0.2845 0.0441 0.7625 0.0742 0.7436 0.1372 0.9265 0.2541 0.0434 0.2065 0.0066 0.1336 0.2411 -0.3721 0.9249 0.6774 0.8173 0.5709 -0.0977 0.6726 0.451 0.3805 0.1148 -0.1892 0.1463 0.3468 0.8436 0.5033 -0.4427
0.1854 0.2154 0.5699 0.2404 0.4332 -0.1739 0.2245 0.081 0.0759 -0.3446 0.6176 0.4647 0.1299 -0.0131 0.1649 -0.1012 0.219 -0.3436 0.2968 0.3646 0.4571 0.4188 0.3473 0.488 -0.5094 -0.2694 0.5385 0.5387 0.3919 -0.5159 0.6632 0.5083 -0.1209 -0.3736 -0.1911
